digraph Tree {
node [shape=box, style="filled, rounded", color="black", fontname=helvetica] ;
edge [fontname=helvetica] ;
0 [label=<X<SUB>7</SUB> &le; 1.815<br/>gini = 0.427<br/>samples = 227<br/>value = [157, 70]>, fillcolor="#f1b991"] ;
1 [label=<X<SUB>4</SUB> &le; 27.5<br/>gini = 0.358<br/>samples = 193<br/>value = [148, 45]>, fillcolor="#eda775"] ;
0 -> 1 [labeldistance=2.5, labelangle=45, headlabel="True"] ;
2 [label=<gini = 0.498<br/>samples = 34<br/>value = [16, 18]>, fillcolor="#e9f4fc"] ;
1 -> 2 ;
3 [label=<X<SUB>0</SUB> &le; 79.5<br/>gini = 0.282<br/>samples = 159<br/>value = [132, 27]>, fillcolor="#ea9b61"] ;
1 -> 3 ;
4 [label=<gini = 0.223<br/>samples = 149<br/>value = [130, 19]>, fillcolor="#e99356"] ;
3 -> 4 ;
5 [label=<gini = 0.32<br/>samples = 10<br/>value = [2, 8]>, fillcolor="#6ab6ec"] ;
3 -> 5 ;
6 [label=<X<SUB>8</SUB> &le; 135.5<br/>gini = 0.389<br/>samples = 34<br/>value = [9, 25]>, fillcolor="#80c0ee"] ;
0 -> 6 [labeldistance=2.5, labelangle=-45, headlabel="False"] ;
7 [label=<gini = 0.211<br/>samples = 25<br/>value = [3, 22]>, fillcolor="#54aae9"] ;
6 -> 7 ;
8 [label=<X<SUB>7</SUB> &le; 2.1<br/>gini = 0.444<br/>samples = 9<br/>value = [6, 3]>, fillcolor="#f2c09c"] ;
6 -> 8 ;
9 [label=<gini = 0.0<br/>samples = 2<br/>value = [0, 2]>, fillcolor="#399de5"] ;
8 -> 9 ;
10 [label=<gini = 0.245<br/>samples = 7<br/>value = [6, 1]>, fillcolor="#e9965a"] ;
8 -> 10 ;
}